digraph Tree {
node [shape=box, style="filled, rounded", color="black", fontname="helvetica"] ;
edge [fontname="helvetica"] ;
0 [label="node #0\ncp <= 0.5\ngini = 0.498\nsamples = 308\nvalue = [164, 144]\nclass = No", fillcolor="#fcf0e7"] ;
1 [label="node #1\nca <= 0.5\ngini = 0.393\nsamples = 149\nvalue = [40.0, 109.0]\nclass = Yes", fillcolor="#82c1ef"] ;
0 -> 1 [labeldistance=2.5, labelangle=45, headlabel="True"] ;
2 [label="node #2\nthal <= 1.5\ngini = 0.5\nsamples = 69\nvalue = [35, 34]\nclass = No", fillcolor="#fefbf9"] ;
1 -> 2 ;
3 [label="node #3\nthalch <= 119.5\ngini = 0.375\nsamples = 40\nvalue = [30, 10]\nclass = No", fillcolor="#eeab7b"] ;
2 -> 3 ;
4 [label="node #4\ngini = 0.0\nsamples = 2\nvalue = [0, 2]\nclass = Yes", fillcolor="#399de5"] ;
3 -> 4 ;
5 [label="node #5\nexang <= 0.5\ngini = 0.332\nsamples = 38\nvalue = [30, 8]\nclass = No", fillcolor="#eca36e"] ;
3 -> 5 ;
6 [label="node #6\nchol <= 304.0\ngini = 0.153\nsamples = 24\nvalue = [22, 2]\nclass = No", fillcolor="#e78c4b"] ;
5 -> 6 ;
7 [label="node #7\ngini = 0.0\nsamples = 21\nvalue = [21, 0]\nclass = No", fillcolor="#e58139"] ;
6 -> 7 ;
8 [label="node #8\nslope <= 1.5\ngini = 0.444\nsamples = 3\nvalue = [1, 2]\nclass = Yes", fillcolor="#9ccef2"] ;
6 -> 8 ;
9 [label="node #9\ngini = 0.0\nsamples = 1\nvalue = [1, 0]\nclass = No", fillcolor="#e58139"] ;
8 -> 9 ;
10 [label="node #10\ngini = 0.0\nsamples = 2\nvalue = [0, 2]\nclass = Yes", fillcolor="#399de5"] ;
8 -> 10 ;
11 [label="node #11\nid <= 258.5\ngini = 0.49\nsamples = 14\nvalue = [8, 6]\nclass = No", fillcolor="#f8e0ce"] ;
5 -> 11 ;
12 [label="node #12\ntrestbps <= 145.0\ngini = 0.346\nsamples = 9\nvalue = [7, 2]\nclass = No", fillcolor="#eca572"] ;
11 -> 12 ;
13 [label="node #13\ngini = 0.0\nsamples = 6\nvalue = [6, 0]\nclass = No", fillcolor="#e58139"] ;
12 -> 13 ;
14 [label="node #14\nslope <= 1.5\ngini = 0.444\nsamples = 3\nvalue = [1, 2]\nclass = Yes", fillcolor="#9ccef2"] ;
12 -> 14 ;
15 [label="node #15\ngini = 0.0\nsamples = 2\nvalue = [0, 2]\nclass = Yes", fillcolor="#399de5"] ;
14 -> 15 ;
16 [label="node #16\ngini = 0.0\nsamples = 1\nvalue = [1, 0]\nclass = No", fillcolor="#e58139"] ;
14 -> 16 ;
17 [label="node #17\nid <= 527.5\ngini = 0.32\nsamples = 5\nvalue = [1, 4]\nclass = Yes", fillcolor="#6ab6ec"] ;
11 -> 17 ;
18 [label="node #18\ngini = 0.0\nsamples = 4\nvalue = [0, 4]\nclass = Yes", fillcolor="#399de5"] ;
17 -> 18 ;
19 [label="node #19\ngini = 0.0\nsamples = 1\nvalue = [1, 0]\nclass = No", fillcolor="#e58139"] ;
17 -> 19 ;
20 [label="node #20\noldpeak <= 0.65\ngini = 0.285\nsamples = 29\nvalue = [5, 24]\nclass = Yes", fillcolor="#62b1ea"] ;
2 -> 20 ;
21 [label="node #21\nage <= 42.0\ngini = 0.5\nsamples = 10\nvalue = [5, 5]\nclass = No", fillcolor="#ffffff"] ;
20 -> 21 ;
22 [label="node #22\ngini = 0.0\nsamples = 3\nvalue = [0, 3]\nclass = Yes", fillcolor="#399de5"] ;
21 -> 22 ;
23 [label="node #23\nchol <= 237.5\ngini = 0.408\nsamples = 7\nvalue = [5, 2]\nclass = No", fillcolor="#efb388"] ;
21 -> 23 ;
24 [label="node #24\ngini = 0.0\nsamples = 5\nvalue = [5, 0]\nclass = No", fillcolor="#e58139"] ;
23 -> 24 ;
25 [label="node #25\ngini = 0.0\nsamples = 2\nvalue = [0, 2]\nclass = Yes", fillcolor="#399de5"] ;
23 -> 25 ;
26 [label="node #26\ngini = 0.0\nsamples = 19\nvalue = [0, 19]\nclass = Yes", fillcolor="#399de5"] ;
20 -> 26 ;
27 [label="node #27\ntrestbps <= 109.0\ngini = 0.117\nsamples = 80\nvalue = [5, 75]\nclass = Yes", fillcolor="#46a4e7"] ;
1 -> 27 ;
28 [label="node #28\nchol <= 233.5\ngini = 0.48\nsamples = 5\nvalue = [2, 3]\nclass = Yes", fillcolor="#bddef6"] ;
27 -> 28 ;
29 [label="node #29\ngini = 0.0\nsamples = 2\nvalue = [2, 0]\nclass = No", fillcolor="#e58139"] ;
28 -> 29 ;
30 [label="node #30\ngini = 0.0\nsamples = 3\nvalue = [0, 3]\nclass = Yes", fillcolor="#399de5"] ;
28 -> 30 ;
31 [label="node #31\nchol <= 301.5\ngini = 0.077\nsamples = 75\nvalue = [3, 72]\nclass = Yes", fillcolor="#41a1e6"] ;
27 -> 31 ;
32 [label="node #32\nthalch <= 105.5\ngini = 0.031\nsamples = 63\nvalue = [1, 62]\nclass = Yes", fillcolor="#3c9fe5"] ;
31 -> 32 ;
33 [label="node #33\noldpeak <= 0.6\ngini = 0.219\nsamples = 8\nvalue = [1, 7]\nclass = Yes", fillcolor="#55abe9"] ;
32 -> 33 ;
34 [label="node #34\ngini = 0.0\nsamples = 1\nvalue = [1, 0]\nclass = No", fillcolor="#e58139"] ;
33 -> 34 ;
35 [label="node #35\ngini = 0.0\nsamples = 7\nvalue = [0, 7]\nclass = Yes", fillcolor="#399de5"] ;
33 -> 35 ;
36 [label="node #36\ngini = 0.0\nsamples = 55\nvalue = [0, 55]\nclass = Yes", fillcolor="#399de5"] ;
32 -> 36 ;
37 [label="node #37\nchol <= 303.5\ngini = 0.278\nsamples = 12\nvalue = [2, 10]\nclass = Yes", fillcolor="#61b1ea"] ;
31 -> 37 ;
38 [label="node #38\ngini = 0.0\nsamples = 2\nvalue = [2, 0]\nclass = No", fillcolor="#e58139"] ;
37 -> 38 ;
39 [label="node #39\ngini = 0.0\nsamples = 10\nvalue = [0, 10]\nclass = Yes", fillcolor="#399de5"] ;
37 -> 39 ;
40 [label="node #40\nage <= 56.5\ngini = 0.343\nsamples = 159\nvalue = [124.0, 35.0]\nclass = No", fillcolor="#eca571"] ;
0 -> 40 [labeldistance=2.5, labelangle=-45, headlabel="False"] ;
41 [label="node #41\noldpeak <= 3.55\ngini = 0.187\nsamples = 96\nvalue = [86, 10]\nclass = No", fillcolor="#e89050"] ;
40 -> 41 ;
42 [label="node #42\nca <= 2.5\ngini = 0.156\nsamples = 94\nvalue = [86, 8]\nclass = No", fillcolor="#e78d4b"] ;
41 -> 42 ;
43 [label="node #43\ntrestbps <= 182.0\ngini = 0.123\nsamples = 91\nvalue = [85, 6]\nclass = No", fillcolor="#e78a47"] ;
42 -> 43 ;
44 [label="node #44\nid <= 297.5\ngini = 0.105\nsamples = 90\nvalue = [85, 5]\nclass = No", fillcolor="#e78845"] ;
43 -> 44 ;
45 [label="node #45\nid <= 18.0\ngini = 0.087\nsamples = 88\nvalue = [84, 4]\nclass = No", fillcolor="#e68742"] ;
44 -> 45 ;
46 [label="node #46\nthal <= 0.5\ngini = 0.375\nsamples = 8\nvalue = [6, 2]\nclass = No", fillcolor="#eeab7b"] ;
45 -> 46 ;
47 [label="node #47\ngini = 0.0\nsamples = 1\nvalue = [0, 1]\nclass = Yes", fillcolor="#399de5"] ;
46 -> 47 ;
48 [label="node #48\nid <= 16.0\ngini = 0.245\nsamples = 7\nvalue = [6, 1]\nclass = No", fillcolor="#e9965a"] ;
46 -> 48 ;
49 [label="node #49\ngini = 0.0\nsamples = 6\nvalue = [6, 0]\nclass = No", fillcolor="#e58139"] ;
48 -> 49 ;
50 [label="node #50\ngini = 0.0\nsamples = 1\nvalue = [0, 1]\nclass = Yes", fillcolor="#399de5"] ;
48 -> 50 ;
51 [label="node #51\ntrestbps <= 109.0\ngini = 0.049\nsamples = 80\nvalue = [78, 2]\nclass = No", fillcolor="#e6843e"] ;
45 -> 51 ;
52 [label="node #52\nthalch <= 153.0\ngini = 0.18\nsamples = 10\nvalue = [9, 1]\nclass = No", fillcolor="#e88f4f"] ;
51 -> 52 ;
53 [label="node #53\nslope <= 1.5\ngini = 0.5\nsamples = 2\nvalue = [1, 1]\nclass = No", fillcolor="#ffffff"] ;
52 -> 53 ;
54 [label="node #54\ngini = 0.0\nsamples = 1\nvalue = [1, 0]\nclass = No", fillcolor="#e58139"] ;
53 -> 54 ;
55 [label="node #55\ngini = 0.0\nsamples = 1\nvalue = [0, 1]\nclass = Yes", fillcolor="#399de5"] ;
53 -> 55 ;
56 [label="node #56\ngini = 0.0\nsamples = 8\nvalue = [8, 0]\nclass = No", fillcolor="#e58139"] ;
52 -> 56 ;
57 [label="node #57\nthal <= 1.5\ngini = 0.028\nsamples = 70\nvalue = [69, 1]\nclass = No", fillcolor="#e5833c"] ;
51 -> 57 ;
58 [label="node #58\ngini = 0.0\nsamples = 62\nvalue = [62, 0]\nclass = No", fillcolor="#e58139"] ;
57 -> 58 ;
59 [label="node #59\nca <= 0.5\ngini = 0.219\nsamples = 8\nvalue = [7, 1]\nclass = No", fillcolor="#e99355"] ;
57 -> 59 ;
60 [label="node #60\ngini = 0.0\nsamples = 7\nvalue = [7, 0]\nclass = No", fillcolor="#e58139"] ;
59 -> 60 ;
61 [label="node #61\ngini = 0.0\nsamples = 1\nvalue = [0, 1]\nclass = Yes", fillcolor="#399de5"] ;
59 -> 61 ;
62 [label="node #62\nid <= 357.0\ngini = 0.5\nsamples = 2\nvalue = [1, 1]\nclass = No", fillcolor="#ffffff"] ;
44 -> 62 ;
63 [label="node #63\ngini = 0.0\nsamples = 1\nvalue = [0, 1]\nclass = Yes", fillcolor="#399de5"] ;
62 -> 63 ;
64 [label="node #64\ngini = 0.0\nsamples = 1\nvalue = [1, 0]\nclass = No", fillcolor="#e58139"] ;
62 -> 64 ;
65 [label="node #65\ngini = 0.0\nsamples = 1\nvalue = [0, 1]\nclass = Yes", fillcolor="#399de5"] ;
43 -> 65 ;
66 [label="node #66\nfbs <= 0.5\ngini = 0.444\nsamples = 3\nvalue = [1, 2]\nclass = Yes", fillcolor="#9ccef2"] ;
42 -> 66 ;
67 [label="node #67\ngini = 0.0\nsamples = 2\nvalue = [0, 2]\nclass = Yes", fillcolor="#399de5"] ;
66 -> 67 ;
68 [label="node #68\ngini = 0.0\nsamples = 1\nvalue = [1, 0]\nclass = No", fillcolor="#e58139"] ;
66 -> 68 ;
69 [label="node #69\ngini = 0.0\nsamples = 2\nvalue = [0, 2]\nclass = Yes", fillcolor="#399de5"] ;
41 -> 69 ;
70 [label="node #70\nsex <= 0.5\ngini = 0.479\nsamples = 63\nvalue = [38, 25]\nclass = No", fillcolor="#f6d4bb"] ;
40 -> 70 ;
71 [label="node #71\nid <= 289.5\ngini = 0.219\nsamples = 24\nvalue = [21, 3]\nclass = No", fillcolor="#e99355"] ;
70 -> 71 ;
72 [label="node #72\nage <= 62.5\ngini = 0.159\nsamples = 23\nvalue = [21, 2]\nclass = No", fillcolor="#e78d4c"] ;
71 -> 72 ;
73 [label="node #73\nca <= 0.5\ngini = 0.408\nsamples = 7\nvalue = [5, 2]\nclass = No", fillcolor="#efb388"] ;
72 -> 73 ;
74 [label="node #74\ngini = 0.0\nsamples = 4\nvalue = [4, 0]\nclass = No", fillcolor="#e58139"] ;
73 -> 74 ;
75 [label="node #75\ntrestbps <= 116.0\ngini = 0.444\nsamples = 3\nvalue = [1, 2]\nclass = Yes", fillcolor="#9ccef2"] ;
73 -> 75 ;
76 [label="node #76\ngini = 0.0\nsamples = 1\nvalue = [1, 0]\nclass = No", fillcolor="#e58139"] ;
75 -> 76 ;
77 [label="node #77\ngini = 0.0\nsamples = 2\nvalue = [0, 2]\nclass = Yes", fillcolor="#399de5"] ;
75 -> 77 ;
78 [label="node #78\ngini = 0.0\nsamples = 16\nvalue = [16, 0]\nclass = No", fillcolor="#e58139"] ;
72 -> 78 ;
79 [label="node #79\ngini = 0.0\nsamples = 1\nvalue = [0, 1]\nclass = Yes", fillcolor="#399de5"] ;
71 -> 79 ;
80 [label="node #80\nchol <= 245.5\ngini = 0.492\nsamples = 39\nvalue = [17, 22]\nclass = Yes", fillcolor="#d2e9f9"] ;
70 -> 80 ;
81 [label="node #81\noldpeak <= 2.4\ngini = 0.48\nsamples = 25\nvalue = [15, 10]\nclass = No", fillcolor="#f6d5bd"] ;
80 -> 81 ;
82 [label="node #82\nid <= 263.5\ngini = 0.408\nsamples = 21\nvalue = [15, 6]\nclass = No", fillcolor="#efb388"] ;
81 -> 82 ;
83 [label="node #83\nage <= 57.5\ngini = 0.133\nsamples = 14\nvalue = [13, 1]\nclass = No", fillcolor="#e78b48"] ;
82 -> 83 ;
84 [label="node #84\nrestecg <= 0.5\ngini = 0.444\nsamples = 3\nvalue = [2, 1]\nclass = No", fillcolor="#f2c09c"] ;
83 -> 84 ;
85 [label="node #85\ngini = 0.0\nsamples = 1\nvalue = [0, 1]\nclass = Yes", fillcolor="#399de5"] ;
84 -> 85 ;
86 [label="node #86\ngini = 0.0\nsamples = 2\nvalue = [2, 0]\nclass = No", fillcolor="#e58139"] ;
84 -> 86 ;
87 [label="node #87\ngini = 0.0\nsamples = 11\nvalue = [11, 0]\nclass = No", fillcolor="#e58139"] ;
83 -> 87 ;
88 [label="node #88\ntrestbps <= 157.0\ngini = 0.408\nsamples = 7\nvalue = [2, 5]\nclass = Yes", fillcolor="#88c4ef"] ;
82 -> 88 ;
89 [label="node #89\ngini = 0.0\nsamples = 5\nvalue = [0, 5]\nclass = Yes", fillcolor="#399de5"] ;
88 -> 89 ;
90 [label="node #90\ngini = 0.0\nsamples = 2\nvalue = [2, 0]\nclass = No", fillcolor="#e58139"] ;
88 -> 90 ;
91 [label="node #91\ngini = 0.0\nsamples = 4\nvalue = [0, 4]\nclass = Yes", fillcolor="#399de5"] ;
81 -> 91 ;
92 [label="node #92\ntrestbps <= 119.0\ngini = 0.245\nsamples = 14\nvalue = [2, 12]\nclass = Yes", fillcolor="#5aade9"] ;
80 -> 92 ;
93 [label="node #93\ngini = 0.0\nsamples = 1\nvalue = [1, 0]\nclass = No", fillcolor="#e58139"] ;
92 -> 93 ;
94 [label="node #94\nslope <= 0.5\ngini = 0.142\nsamples = 13\nvalue = [1, 12]\nclass = Yes", fillcolor="#49a5e7"] ;
92 -> 94 ;
95 [label="node #95\ngini = 0.0\nsamples = 1\nvalue = [1, 0]\nclass = No", fillcolor="#e58139"] ;
94 -> 95 ;
96 [label="node #96\ngini = 0.0\nsamples = 12\nvalue = [0, 12]\nclass = Yes", fillcolor="#399de5"] ;
94 -> 96 ;
}